|--- feature_6 <= 0.50
|   |--- class: 0
|--- feature_6 >  0.50
|   |--- feature_6 <= 1.50
|   |   |--- class: 1
|   |--- feature_6 >  1.50
|   |   |--- feature_6 <= 3.50
|   |   |   |--- feature_6 <= 2.50
|   |   |   |   |--- class: 2
|   |   |   |--- feature_6 >  2.50
|   |   |   |   |--- class: 3
|   |   |--- feature_6 >  3.50
|   |   |   |--- feature_6 <= 4.50
|   |   |   |   |--- class: 4
|   |   |   |--- feature_6 >  4.50
|   |   |   |   |--- class: 5
